Weights_0,Weights_1,Weights_2,Weights_3
0.000000000000000000e+00,0.000000000000000000e+00,0.000000000000000000e+00,0.000000000000000000e+00
0.000000000000000000e+00,0.000000000000000000e+00,0.000000000000000000e+00,0.000000000000000000e+00
0.000000000000000000e+00,0.000000000000000000e+00,0.000000000000000000e+00,0.000000000000000000e+00
0.000000000000000000e+00,0.000000000000000000e+00,0.000000000000000000e+00,0.000000000000000000e+00
1.768112368708402438e-01,0.000000000000000000e+00,0.000000000000000000e+00,0.000000000000000000e+00
1.828104507699190584e-01,-3.135605197916998405e-02,-3.135605197916998405e-02,-3.135605197916998405e-02
2.027737151053362330e-01,-5.282337409780196724e-02,-5.282337409780196724e-02,-5.282337409780196724e-02
2.292097881881793586e-01,-7.255949831280077145e-02,-7.255949831280077145e-02,-7.255949831280077145e-02
2.625224541133969192e-01,-9.144057482790395042e-02,-9.144057482790395042e-02,-9.144057482790395042e-02
3.001446975374665871e-01,-1.118195196707023054e-01,-1.118195196707023054e-01,-1.118195196707023054e-01
3.420322508686828300e-01,-1.335079129231015183e-01,-1.335079129231015183e-01,-1.335079129231015183e-01
3.876948787962542498e-01,-1.561461900363481092e-01,-1.561461900363481092e-01,-1.561461900363481092e-01
4.336398617637601816e-01,-1.827233173173309078e-01,-1.827233173173309078e-01,-1.827233173173309078e-01
4.844279154562849410e-01,-2.074672402036000507e-01,-2.074672402036000507e-01,-2.074672402036000507e-01
5.423226111951799933e-01,-2.292171905383832697e-01,-2.292171905383832697e-01,-2.292171905383832697e-01
6.046115075335145583e-01,-2.505456970800489791e-01,-2.505456970800489791e-01,-2.505456970800489791e-01
6.682562453149641923e-01,-2.723469413087409308e-01,-2.723469413087409308e-01,-2.723469413087409308e-01
7.277210102983826534e-01,-2.990701393128158969e-01,-2.990701393128158969e-01,-2.990701393128158969e-01
7.947914197918024559e-01,-3.209790497615647720e-01,-3.209790497615647720e-01,-3.209790497615647720e-01
8.627499113601002634e-01,-3.428725855150312474e-01,-3.428725855150312474e-01,-3.428725855150312474e-01
9.339698416527993929e-01,-3.598631239784921831e-01,-3.598631239784921831e-01,-3.598631239784921831e-01
1.007657434373444127e+00,-3.694394524131033308e-01,-3.694394524131033308e-01,-3.694394524131033308e-01
1.070927197514282225e+00,-3.870106493869195363e-01,-3.870106493869195363e-01,-3.870106493869195363e-01
1.128213207840191412e+00,-4.109714547266392071e-01,-4.109714547266392071e-01,-4.109714547266392071e-01
1.186262143274229075e+00,-4.322884511361448356e-01,-4.322884511361448356e-01,-4.322884511361448356e-01
1.234724727552306556e+00,-4.565100295029709265e-01,-4.565100295029709265e-01,-4.565100295029709265e-01
1.290903216290979261e+00,-4.728057350234113332e-01,-4.728057350234113332e-01,-4.728057350234113332e-01
1.345971275620508223e+00,-4.897090313629917091e-01,-4.897090313629917091e-01,-4.897090313629917091e-01
1.398984407791437512e+00,-5.050211274759567326e-01,-5.050211274759567326e-01,-5.050211274759567326e-01
1.446062322294809910e+00,-5.252693631455890300e-01,-5.252693631455890300e-01,-5.252693631455890300e-01
1.490801191251849955e+00,-5.452365513533539154e-01,-5.452365513533539154e-01,-5.452365513533539154e-01
1.537843097091484035e+00,-5.611451954366979411e-01,-5.611451954366979411e-01,-5.611451954366979411e-01
1.584586443768814634e+00,-5.748200641316670856e-01,-5.748200641316670856e-01,-5.748200641316670856e-01
1.631757322002086674e+00,-5.852198647656287056e-01,-5.852198647656287056e-01,-5.852198647656287056e-01
1.679596688380698977e+00,-5.924191949005505053e-01,-5.924191949005505053e-01,-5.924191949005505053e-01
1.722921171238472660e+00,-6.009949825933106338e-01,-6.009949825933106338e-01,-6.009949825933106338e-01
1.760622821600245302e+00,-6.113483850261436370e-01,-6.113483850261436370e-01,-6.113483850261436370e-01
1.793205046862638374e+00,-6.241706309882496528e-01,-6.241706309882496528e-01,-6.241706309882496528e-01
1.822663354175081629e+00,-6.363874697560552018e-01,-6.363874697560552018e-01,-6.363874697560552018e-01
1.852262725450001923e+00,-6.453326463899808907e-01,-6.453326463899808907e-01,-6.453326463899808907e-01
1.880467725295507098e+00,-6.523817761741671495e-01,-6.523817761741671495e-01,-6.523817761741671495e-01
1.907181775430276671e+00,-6.576317242778872973e-01,-6.576317242778872973e-01,-6.576317242778872973e-01
1.931819029341536043e+00,-6.615256852217229477e-01,-6.615256852217229477e-01,-6.615256852217229477e-01
1.952929623731835651e+00,-6.639678256035376203e-01,-6.639678256035376203e-01,-6.639678256035376203e-01
1.968938939163621615e+00,-6.682641717512692869e-01,-6.682641717512692869e-01,-6.682641717512692869e-01
1.982449377963746873e+00,-6.717228272690191071e-01,-6.717228272690191071e-01,-6.717228272690191071e-01
1.993302852397426994e+00,-6.742702895668987173e-01,-6.742702895668987173e-01,-6.742702895668987173e-01
2.001843460961497900e+00,-6.756443992112924901e-01,-6.756443992112924901e-01,-6.756443992112924901e-01
2.007103927984862590e+00,-6.768159540760483317e-01,-6.768159540760483317e-01,-6.768159540760483317e-01
2.009756940614964016e+00,-6.772152809142064633e-01,-6.772152809142064633e-01,-6.772152809142064633e-01
2.009464018746285774e+00,-6.771704578795287865e-01,-6.771704578795287865e-01,-6.771704578795287865e-01
2.006132933154250342e+00,-6.767959711858203553e-01,-6.767959711858203553e-01,-6.767959711858203553e-01
1.999945476070070116e+00,-6.759442791036263110e-01,-6.759442791036263110e-01,-6.759442791036263110e-01
1.990703085785749060e+00,-6.749681862062641979e-01,-6.749681862062641979e-01,-6.749681862062641979e-01
1.977813526912634678e+00,-6.744273696943899887e-01,-6.744273696943899887e-01,-6.744273696943899887e-01
1.961567877978695140e+00,-6.740711867319434392e-01,-6.740711867319434392e-01,-6.740711867319434392e-01
1.942224078465991877e+00,-6.737675915302921981e-01,-6.737675915302921981e-01,-6.737675915302921981e-01
1.919329660879401267e+00,-6.740546091906135517e-01,-6.740546091906135517e-01,-6.740546091906135517e-01
1.893397211478611286e+00,-6.750245601938136275e-01,-6.750245601938136275e-01,-6.750245601938136275e-01
1.863323530984588583e+00,-6.781249906721605880e-01,-6.781249906721605880e-01,-6.781249906721605880e-01
1.829953385726844184e+00,-6.836610670444938087e-01,-6.836610670444938087e-01,-6.836610670444938087e-01
1.793527204642181738e+00,-6.924972459082715526e-01,-6.924972459082715526e-01,-6.924972459082715526e-01
1.756867196107637641e+00,-7.040958339920436737e-01,-7.040958339920436737e-01,-7.040958339920436737e-01
1.725546448752593776e+00,-7.163384028624338873e-01,-7.163384028624338873e-01,-7.163384028624338873e-01
1.695911299048745491e+00,-7.299627547607225875e-01,-7.299627547607225875e-01,-7.299627547607225875e-01
1.670570241526918798e+00,-7.427078269167787239e-01,-7.427078269167787239e-01,-7.427078269167787239e-01
1.651089532404512950e+00,-7.532026538547557104e-01,-7.532026538547557104e-01,-7.532026538547557104e-01
1.633070995748700627e+00,-7.634384978927772902e-01,-7.634384978927772902e-01,-7.634384978927772902e-01
1.618122017107407995e+00,-7.721946795418147547e-01,-7.721946795418147547e-01,-7.721946795418147547e-01
1.604988858535203455e+00,-7.801112920731744227e-01,-7.801112920731744227e-01,-7.801112920731744227e-01
1.592498869534253902e+00,-7.878012481817046053e-01,-7.878012481817046053e-01,-7.878012481817046053e-01
1.581004441902742030e+00,-7.949788673543568551e-01,-7.949788673543568551e-01,-7.949788673543568551e-01
1.569781354608325907e+00,-8.020836845455920905e-01,-8.020836845455920905e-01,-8.020836845455920905e-01
1.559581550113429360e+00,-8.085998024244730464e-01,-8.085998024244730464e-01,-8.085998024244730464e-01
1.550117310457672426e+00,-8.147163208960422898e-01,-8.147163208960422898e-01,-8.147163208960422898e-01
1.541637248491857459e+00,-8.202505104536886860e-01,-8.202505104536886860e-01,-8.202505104536886860e-01
1.534378174233741898e+00,-8.250352489149156421e-01,-8.250352489149156421e-01,-8.250352489149156421e-01
1.527941634358725098e+00,-8.293207869361621798e-01,-8.293207869361621798e-01,-8.293207869361621798e-01
1.522273343620984765e+00,-8.331256408963746418e-01,-8.331256408963746418e-01,-8.331256408963746418e-01
1.517149972899609178e+00,-8.365903066463917792e-01,-8.365903066463917792e-01,-8.365903066463917792e-01
1.512578360245168785e+00,-8.397007256512902806e-01,-8.397007256512902806e-01,-8.397007256512902806e-01
1.508319279135292623e+00,-8.426154652385252630e-01,-8.426154652385252630e-01,-8.426154652385252630e-01
1.504335069140249059e+00,-8.453536351984641817e-01,-8.453536351984641817e-01,-8.453536351984641817e-01
1.500732629907825855e+00,-8.478385450685906877e-01,-8.478385450685906877e-01,-8.478385450685906877e-01
1.497315763573469960e+00,-8.502058244756706129e-01,-8.502058244756706129e-01,-8.502058244756706129e-01
1.494071511077238013e+00,-8.524591176475820875e-01,-8.524591176475820875e-01,-8.524591176475820875e-01
1.491001674552866918e+00,-8.545952319349727766e-01,-8.545952319349727766e-01,-8.545952319349727766e-01
1.488104396704504007e+00,-8.566144055553064351e-01,-8.566144055553064351e-01,-8.566144055553064351e-01
1.485430492531045976e+00,-8.584799387871920873e-01,-8.584799387871920873e-01,-8.584799387871920873e-01
1.482969740740778475e+00,-8.602004595974407364e-01,-8.602004595974407364e-01,-8.602004595974407364e-01
1.480758044128219986e+00,-8.617498456095151749e-01,-8.617498456095151749e-01,-8.617498456095151749e-01
1.478755214744540858e+00,-8.631565854405304217e-01,-8.631565854405304217e-01,-8.631565854405304217e-01
1.476961498103509074e+00,-8.644184507163470421e-01,-8.644184507163470421e-01,-8.644184507163470421e-01
1.475382162330168390e+00,-8.655306844239547548e-01,-8.655306844239547548e-01,-8.655306844239547548e-01
1.474021934054731586e+00,-8.664893596096989725e-01,-8.664893596096989725e-01,-8.664893596096989725e-01
1.472887683380826429e+00,-8.672890713719907385e-01,-8.672890713719907385e-01,-8.672890713719907385e-01
1.471984219876512734e+00,-8.679262725624399266e-01,-8.679262725624399266e-01,-8.679262725624399266e-01
1.471315828823734018e+00,-8.683978290629112973e-01,-8.683978290629112973e-01,-8.683978290629112973e-01
1.470885652896708473e+00,-8.687011530733126374e-01,-8.687011530733126374e-01,-8.687011530733126374e-01
1.470694517131374335e+00,-8.688358719182792678e-01,-8.688358719182792678e-01,-8.688358719182792678e-01
1.470741715616518341e+00,-8.688026234623712485e-01,-8.688026234623712485e-01,-8.688026234623712485e-01
1.471023357878934235e+00,-8.686045958181054516e-01,-8.686045958181054516e-01,-8.686045958181054516e-01
1.471538277348250823e+00,-8.682426113110620625e-01,-8.682426113110620625e-01,-8.682426113110620625e-01
1.472283704347677968e+00,-8.677184890821870722e-01,-8.677184890821870722e-01,-8.677184890821870722e-01
1.473253910750028428e+00,-8.670368259182552606e-01,-8.670368259182552606e-01,-8.670368259182552606e-01
1.474442124058584769e+00,-8.662013389212124270e-01,-8.662013389212124270e-01,-8.662013389212124270e-01
1.475832056601700470e+00,-8.652255139217185365e-01,-8.652255139217185365e-01,-8.652255139217185365e-01
1.477420173280056481e+00,-8.641124733456866380e-01,-8.641124733456866380e-01,-8.641124733456866380e-01
1.479158466921296045e+00,-8.628955570949090603e-01,-8.628955570949090603e-01,-8.628955570949090603e-01
1.481025557927744041e+00,-8.615927581732644169e-01,-8.615927581732644169e-01,-8.615927581732644169e-01
1.482963409839332947e+00,-8.602448985462886055e-01,-8.602448985462886055e-01,-8.602448985462886055e-01
1.484924563568444489e+00,-8.588868395161332048e-01,-8.588868395161332048e-01,-8.588868395161332048e-01
1.486945723106481543e+00,-8.574941905593372882e-01,-8.574941905593372882e-01,-8.574941905593372882e-01
1.488991985760985903e+00,-8.560893404979014187e-01,-8.560893404979014187e-01,-8.560893404979014187e-01
1.491086029246106559e+00,-8.546580260953507979e-01,-8.546580260953507979e-01,-8.546580260953507979e-01
1.493214080697480961e+00,-8.532082329826551348e-01,-8.532082329826551348e-01,-8.532082329826551348e-01
1.495337879581968066e+00,-8.517665043745097364e-01,-8.517665043745097364e-01,-8.517665043745097364e-01
1.497473395541245589e+00,-8.503232108652720722e-01,-8.503232108652720722e-01,-8.503232108652720722e-01
1.499600062074377682e+00,-8.488909158403258326e-01,-8.488909158403258326e-01,-8.488909158403258326e-01
1.501703110705769451e+00,-8.474802935112797364e-01,-8.474802935112797364e-01,-8.474802935112797364e-01
1.503782553058317983e+00,-8.460914220777805417e-01,-8.460914220777805417e-01,-8.460914220777805417e-01
1.505846316651924033e+00,-8.447185141197987024e-01,-8.447185141197987024e-01,-8.447185141197987024e-01
1.507885743844204818e+00,-8.433664221798794491e-01,-8.433664221798794491e-01,-8.433664221798794491e-01
1.509885635293207518e+00,-8.420453459143499853e-01,-8.420453459143499853e-01,-8.420453459143499853e-01
1.511853557384709390e+00,-8.407506193998112165e-01,-8.407506193998112165e-01,-8.407506193998112165e-01
1.513778296328117001e+00,-8.394884292805674386e-01,-8.394884292805674386e-01,-8.394884292805674386e-01
1.515658227146233550e+00,-8.382602609023754869e-01,-8.382602609023754869e-01,-8.382602609023754869e-01
1.517479297836528795e+00,-8.370746408150706586e-01,-8.370746408150706586e-01,-8.370746408150706586e-01
1.519231616674806995e+00,-8.359384771745718146e-01,-8.359384771745718146e-01,-8.359384771745718146e-01
1.520909988151688319e+00,-8.348550261622318391e-01,-8.348550261622318391e-01,-8.348550261622318391e-01
1.522517578420035989e+00,-8.338219427299089492e-01,-8.338219427299089492e-01,-8.338219427299089492e-01
1.524055966278871743e+00,-8.328373731508547095e-01,-8.328373731508547095e-01,-8.328373731508547095e-01
1.525530113153279466e+00,-8.318975249500943914e-01,-8.318975249500943914e-01,-8.318975249500943914e-01
1.526938770114282695e+00,-8.310021102598976750e-01,-8.310021102598976750e-01,-8.310021102598976750e-01
1.528279394722465323e+00,-8.301524401428929112e-01,-8.301524401428929112e-01,-8.301524401428929112e-01
1.529547384253808984e+00,-8.293510226201935565e-01,-8.293510226201935565e-01,-8.293510226201935565e-01
1.530737114396174325e+00,-8.286013470301720751e-01,-8.286013470301720751e-01,-8.286013470301720751e-01
1.531847366006817923e+00,-8.279041401184972226e-01,-8.279041401184972226e-01,-8.279041401184972226e-01
1.532874684327782067e+00,-8.272609584456286358e-01,-8.272609584456286358e-01,-8.272609584456286358e-01
1.533820497293852725e+00,-8.266708556198059110e-01,-8.266708556198059110e-01,-8.266708556198059110e-01
1.534686133862496193e+00,-8.261319740405401735e-01,-8.261319740405401735e-01,-8.261319740405401735e-01
1.535469664722272976e+00,-8.256447345892912182e-01,-8.256447345892912182e-01,-8.256447345892912182e-01
1.536168271795761653e+00,-8.252110351161865420e-01,-8.252110351161865420e-01,-8.252110351161865420e-01
1.536779516333660389e+00,-8.248320729834874854e-01,-8.248320729834874854e-01,-8.248320729834874854e-01
1.537298283386113740e+00,-8.245110896010412471e-01,-8.245110896010412471e-01,-8.245110896010412471e-01
1.537723776813469057e+00,-8.242488664745583060e-01,-8.242488664745583060e-01,-8.242488664745583060e-01
1.538057858872563965e+00,-8.240437232250440447e-01,-8.240437232250440447e-01,-8.240437232250440447e-01
1.538300889765881863e+00,-8.238948487595535441e-01,-8.238948487595535441e-01,-8.238948487595535441e-01
1.538453628834405063e+00,-8.238015636383817508e-01,-8.238015636383817508e-01,-8.238015636383817508e-01
1.538516585608666443e+00,-8.237631257799173934e-01,-8.237631257799173934e-01,-8.237631257799173934e-01
1.538489583107646164e+00,-8.237796174280930250e-01,-8.237796174280930250e-01,-8.237796174280930250e-01
1.538372687547780338e+00,-8.238510173367216138e-01,-8.238510173367216138e-01,-8.238510173367216138e-01
1.538166517035183922e+00,-8.239768893209511447e-01,-8.239768893209511447e-01,-8.239768893209511447e-01
1.537871723075161734e+00,-8.241569217047333140e-01,-8.241569217047333140e-01,-8.241569217047333140e-01
1.537489149148877354e+00,-8.243907446492111379e-01,-8.243907446492111379e-01,-8.243907446492111379e-01
1.537020879065023049e+00,-8.246771891379438557e-01,-8.246771891379438557e-01,-8.246771891379438557e-01
1.536466665312572699e+00,-8.250170462770848312e-01,-8.250170462770848312e-01,-8.250170462770848312e-01
1.535830099672070626e+00,-8.254079069173143601e-01,-8.254079069173143601e-01,-8.254079069173143601e-01
1.535113382034993812e+00,-8.258490293085575251e-01,-8.258490293085575251e-01,-8.258490293085575251e-01
1.534318081229663067e+00,-8.263400775511090535e-01,-8.263400775511090535e-01,-8.263400775511090535e-01
1.533449172492190371e+00,-8.268782445012025084e-01,-8.268782445012025084e-01,-8.268782445012025084e-01
1.532504810142497842e+00,-8.274655866745924682e-01,-8.274655866745924682e-01,-8.274655866745924682e-01
1.531490600475035491e+00,-8.280977523691017694e-01,-8.280977523691017694e-01,-8.280977523691017694e-01
1.530411335691582275e+00,-8.287715977781475729e-01,-8.287715977781475729e-01,-8.287715977781475729e-01
1.529272212356951099e+00,-8.294841708015250337e-01,-8.294841708015250337e-01,-8.294841708015250337e-01
1.528075931870493953e+00,-8.302346539184750629e-01,-8.302346539184750629e-01,-8.302346539184750629e-01
1.526831616648218981e+00,-8.310176141063384536e-01,-8.310176141063384536e-01,-8.310176141063384536e-01
1.525545267773677605e+00,-8.318308257759936541e-01,-8.318308257759936541e-01,-8.318308257759936541e-01
1.524212266415826411e+00,-8.326783985847607816e-01,-8.326783985847607816e-01,-8.326783985847607816e-01
1.522844126581236912e+00,-8.335517161177994350e-01,-8.335517161177994350e-01,-8.335517161177994350e-01
1.521441025310590778e+00,-8.344514061564535234e-01,-8.344514061564535234e-01,-8.344514061564535234e-01
1.520008831677275518e+00,-8.353729756354508762e-01,-8.353729756354508762e-01,-8.353729756354508762e-01
1.518554965987751748e+00,-8.363111574775921042e-01,-8.363111574775921042e-01,-8.363111574775921042e-01
1.517087882712607083e+00,-8.372606610265765914e-01,-8.372606610265765914e-01,-8.372606610265765914e-01
1.515615539219235641e+00,-8.382172799210853009e-01,-8.382172799210853009e-01,-8.382172799210853009e-01
1.514137996866305569e+00,-8.391820482933021186e-01,-8.391820482933021186e-01,-8.391820482933021186e-01
1.512668697055597811e+00,-8.401455939011455154e-01,-8.401455939011455154e-01,-8.401455939011455154e-01
1.511210065395943714e+00,-8.411073859495309391e-01,-8.411073859495309391e-01,-8.411073859495309391e-01
1.509766040933495423e+00,-8.420646798567960056e-01,-8.420646798567960056e-01,-8.420646798567960056e-01
1.508344284791829137e+00,-8.430118998043396594e-01,-8.430118998043396594e-01,-8.430118998043396594e-01
1.506949069035899980e+00,-8.439461564128729609e-01,-8.439461564128729609e-01,-8.439461564128729609e-01
1.505589117291902257e+00,-8.448612086373805674e-01,-8.448612086373805674e-01,-8.448612086373805674e-01
1.504267597258335254e+00,-8.457550705153282777e-01,-8.457550705153282777e-01,-8.457550705153282777e-01
1.502997885140346934e+00,-8.466182011524393536e-01,-8.466182011524393536e-01,-8.466182011524393536e-01
1.501774518765418343e+00,-8.474549439593843658e-01,-8.474549439593843658e-01,-8.474549439593843658e-01
1.500607817446818926e+00,-8.482568670120710363e-01,-8.482568670120710363e-01,-8.482568670120710363e-01
1.499501006090200539e+00,-8.490216387238939122e-01,-8.490216387238939122e-01,-8.490216387238939122e-01
1.498452213173058212e+00,-8.497500577567607127e-01,-8.497500577567607127e-01,-8.497500577567607127e-01
1.497471425128408917e+00,-8.504338192257755447e-01,-8.504338192257755447e-01,-8.504338192257755447e-01
1.496555118458397615e+00,-8.510753791569887206e-01,-8.510753791569887206e-01,-8.510753791569887206e-01
1.495712553669451328e+00,-8.516667181351373905e-01,-8.516667181351373905e-01,-8.516667181351373905e-01
1.494945382300774339e+00,-8.522066529898356668e-01,-8.522066529898356668e-01,-8.522066529898356668e-01
1.494257497868733742e+00,-8.526918738083689719e-01,-8.526918738083689719e-01,-8.526918738083689719e-01
1.493654567355427787e+00,-8.531179415428219448e-01,-8.531179415428219448e-01,-8.531179415428219448e-01
1.493135872883539550e+00,-8.534855688749520830e-01,-8.534855688749520830e-01,-8.534855688749520830e-01
1.492705846235171663e+00,-8.537908661254544063e-01,-8.537908661254544063e-01,-8.537908661254544063e-01
1.492366176399614108e+00,-8.540324448222429421e-01,-8.540324448222429421e-01,-8.540324448222429421e-01
1.492119209608015140e+00,-8.542082765794352106e-01,-8.542082765794352106e-01,-8.542082765794352106e-01
1.491966941525263879e+00,-8.543166808788703603e-01,-8.543166808788703603e-01,-8.543166808788703603e-01
1.491910044522570367e+00,-8.543571367684177353e-01,-8.543571367684177353e-01,-8.543571367684177353e-01
1.491947754440114959e+00,-8.543303784200284579e-01,-8.543303784200284579e-01,-8.543303784200284579e-01
1.492079012866293297e+00,-8.542373780268306405e-01,-8.542373780268306405e-01,-8.542373780268306405e-01
1.492302599163487287e+00,-8.540791658630799699e-01,-8.540791658630799699e-01,-8.540791658630799699e-01
1.492616944612056962e+00,-8.538570277701431621e-01,-8.538570277701431621e-01,-8.538570277701431621e-01
1.493019910336045974e+00,-8.535726066822110214e-01,-8.535726066822110214e-01,-8.535726066822110214e-01
1.493508732843145115e+00,-8.532282624261590120e-01,-8.532282624261590120e-01,-8.532282624261590120e-01
1.494081739564786737e+00,-8.528250688910291588e-01,-8.528250688910291588e-01,-8.528250688910291588e-01
1.494736285728141656e+00,-8.523650415403162262e-01,-8.523650415403162262e-01,-8.523650415403162262e-01
1.495470199119270260e+00,-8.518495466446025510e-01,-8.518495466446025510e-01,-8.518495466446025510e-01
1.496279118015927834e+00,-8.512818830260426850e-01,-8.512818830260426850e-01,-8.512818830260426850e-01
1.497156319596370633e+00,-8.506674467845589671e-01,-8.506674467845589671e-01,-8.506674467845589671e-01
1.498094312200548339e+00,-8.500122948913008125e-01,-8.500122948913008125e-01,-8.500122948913008125e-01
1.499085525583124134e+00,-8.493224247131001547e-01,-8.493224247131001547e-01,-8.493224247131001547e-01
1.500123836792640608e+00,-8.486028214351508669e-01,-8.486028214351508669e-01,-8.486028214351508669e-01
1.501206078128743737e+00,-8.478557835443215618e-01,-8.478557835443215618e-01,-8.478557835443215618e-01
1.502329324686801471e+00,-8.470828911388766924e-01,-8.470828911388766924e-01,-8.470828911388766924e-01
1.503488751860244887e+00,-8.462876116055152442e-01,-8.462876116055152442e-01,-8.462876116055152442e-01
1.504678395344099640e+00,-8.454740825361694023e-01,-8.454740825361694023e-01,-8.454740825361694023e-01
1.505885699516112508e+00,-8.446516603350492369e-01,-8.446516603350492369e-01,-8.446516603350492369e-01
1.507099615769406098e+00,-8.438300892870632675e-01,-8.438300892870632675e-01,-8.438300892870632675e-01
1.508317210525355279e+00,-8.430112428762441823e-01,-8.430112428762441823e-01,-8.430112428762441823e-01
1.509535498952383925e+00,-8.421966374264070465e-01,-8.421966374264070465e-01,-8.421966374264070465e-01
1.510752285611848267e+00,-8.413876793584571523e-01,-8.413876793584571523e-01,-8.413876793584571523e-01
1.511965750039673484e+00,-8.405842927328645020e-01,-8.405842927328645020e-01,-8.405842927328645020e-01
1.513170554919441413e+00,-8.397905963322249701e-01,-8.397905963322249701e-01,-8.397905963322249701e-01
1.514363451884806810e+00,-8.390079311232433446e-01,-8.390079311232433446e-01,-8.390079311232433446e-01
1.515537534656354879e+00,-8.382414462480690664e-01,-8.382414462480690664e-01,-8.382414462480690664e-01
1.516687733499646029e+00,-8.374947108358249404e-01,-8.374947108358249404e-01,-8.374947108358249404e-01
1.517810061448745751e+00,-8.367700705698452035e-01,-8.367700705698452035e-01,-8.367700705698452035e-01
1.518900249165211935e+00,-8.360703362669645866e-01,-8.360703362669645866e-01,-8.360703362669645866e-01
1.519956174068802346e+00,-8.353965795231126368e-01,-8.353965795231126368e-01,-8.353965795231126368e-01
1.520977545184631019e+00,-8.347476601456358392e-01,-8.347476601456358392e-01,-8.347476601456358392e-01
1.521961352507149590e+00,-8.341251645758582800e-01,-8.341251645758582800e-01,-8.341251645758582800e-01
1.522904129327528500e+00,-8.335310383697159820e-01,-8.335310383697159820e-01,-8.335310383697159820e-01
1.523801919229438973e+00,-8.329680075312878573e-01,-8.329680075312878573e-01,-8.329680075312878573e-01
1.524652275391363832e+00,-8.324369791127170792e-01,-8.324369791127170792e-01,-8.324369791127170792e-01
1.525449631321019073e+00,-8.319420254911478185e-01,-8.319420254911478185e-01,-8.319420254911478185e-01
1.526191400015852961e+00,-8.314851804053480233e-01,-8.314851804053480233e-01,-8.314851804053480233e-01
1.526879936774776514e+00,-8.310627657456166606e-01,-8.310627657456166606e-01,-8.310627657456166606e-01
1.527511109272214673e+00,-8.306779553164337360e-01,-8.306779553164337360e-01,-8.306779553164337360e-01
1.528084368140420146e+00,-8.303305696523964885e-01,-8.303305696523964885e-01,-8.303305696523964885e-01
1.528600682196911809e+00,-8.300187060084845969e-01,-8.300187060084845969e-01,-8.300187060084845969e-01
1.529057878115918978e+00,-8.297437873983734002e-01,-8.297437873983734002e-01,-8.297437873983734002e-01
1.529455515466006998e+00,-8.295055872121067653e-01,-8.295055872121067653e-01,-8.295055872121067653e-01
1.529793416725234723e+00,-8.293036614650012295e-01,-8.293036614650012295e-01,-8.293036614650012295e-01
1.530070790582271467e+00,-8.291382825537935153e-01,-8.291382825537935153e-01,-8.291382825537935153e-01
1.530287716380204666e+00,-8.290089176904033019e-01,-8.290089176904033019e-01,-8.290089176904033019e-01
1.530442739628295357e+00,-8.289166750081247148e-01,-8.289166750081247148e-01,-8.289166750081247148e-01
1.530535592026989855e+00,-8.288615902723954765e-01,-8.288615902723954765e-01,-8.288615902723954765e-01
1.530566549012349897e+00,-8.288432391577167380e-01,-8.288432391577167380e-01,-8.288432391577167380e-01
1.530535591617255831e+00,-8.288615906864073013e-01,-8.288615906864073013e-01,-8.288615906864073013e-01
1.530442873493243816e+00,-8.289165466315665531e-01,-8.289165466315665531e-01,-8.289165466315665531e-01
1.530288136376311448e+00,-8.290085175148331764e-01,-8.290085175148331764e-01,-8.290085175148331764e-01
1.530071754785213400e+00,-8.291373795920438106e-01,-8.291373795920438106e-01,-8.291373795920438106e-01
1.529794328829076955e+00,-8.293028804239395146e-01,-8.293028804239395146e-01,-8.293028804239395146e-01
1.529456774086131787e+00,-8.295045459854721859e-01,-8.295045459854721859e-01,-8.295045459854721859e-01
1.529060641925022335e+00,-8.297413900156669353e-01,-8.297413900156669353e-01,-8.297413900156669353e-01
1.528605896346813875e+00,-8.300141428018925627e-01,-8.300141428018925627e-01,-8.300141428018925627e-01
1.528092595772517326e+00,-8.303236321318772095e-01,-8.303236321318772095e-01,-8.303236321318772095e-01
1.527519280627794629e+00,-8.306721297890905520e-01,-8.306721297890905520e-01,-8.306721297890905520e-01
1.526888061381219019e+00,-8.310586244242211817e-01,-8.310586244242211817e-01,-8.310586244242211817e-01
1.526197824260873137e+00,-8.314852013427398436e-01,-8.314852013427398436e-01,-8.314852013427398436e-01
1.525450601152717134e+00,-8.319508918502850348e-01,-8.319508918502850348e-01,-8.319508918502850348e-01
1.524648785890097669e+00,-8.324545529053360982e-01,-8.324545529053360982e-01,-8.324545529053360982e-01
1.523794044665113701e+00,-8.329960661808640809e-01,-8.329960661808640809e-01,-8.329960661808640809e-01
1.522884498921699414e+00,-8.335784305415884221e-01,-8.335784305415884221e-01,-8.335784305415884221e-01
1.521924160343058663e+00,-8.341988718970442251e-01,-8.341988718970442251e-01,-8.341988718970442251e-01
1.520917260534318638e+00,-8.348546242503440684e-01,-8.348546242503440684e-01,-8.348546242503440684e-01
1.519865380765253571e+00,-8.355453903253918790e-01,-8.355453903253918790e-01,-8.355453903253918790e-01
1.518773753611718735e+00,-8.362674297153832592e-01,-8.362674297153832592e-01,-8.362674297153832592e-01
1.517645599522879252e+00,-8.370190577320419933e-01,-8.370190577320419933e-01,-8.370190577320419933e-01
1.516487143043736330e+00,-8.377965769600599355e-01,-8.377965769600599355e-01,-8.377965769600599355e-01
1.515289123484568679e+00,-8.386098624036889548e-01,-8.386098624036889548e-01,-8.386098624036889548e-01
1.514065501741241881e+00,-8.394466234687212314e-01,-8.394466234687212314e-01,-8.394466234687212314e-01
1.512820374653254030e+00,-8.403047013468222248e-01,-8.403047013468222248e-01,-8.403047013468222248e-01
1.511552448985634012e+00,-8.411864147891647825e-01,-8.411864147891647825e-01,-8.411864147891647825e-01
1.510273244561350259e+00,-8.420820259939442165e-01,-8.420820259939442165e-01,-8.420820259939442165e-01
1.508985455250380303e+00,-8.429905625326342689e-01,-8.429905625326342689e-01,-8.429905625326342689e-01
1.507694295587151512e+00,-8.439089385808998811e-01,-8.439089385808998811e-01,-8.439089385808998811e-01
1.506395534310193352e+00,-8.448417630536289025e-01,-8.448417630536289025e-01,-8.448417630536289025e-01
1.505106981243355513e+00,-8.457729740560775422e-01,-8.457729740560775422e-01,-8.457729740560775422e-01
1.503829100413682562e+00,-8.467031168335351632e-01,-8.467031168335351632e-01,-8.467031168335351632e-01
1.502571662616211556e+00,-8.476236071828455731e-01,-8.476236071828455731e-01,-8.476236071828455731e-01
1.501342495893934759e+00,-8.485278448023015896e-01,-8.485278448023015896e-01,-8.485278448023015896e-01
1.500148498017516596e+00,-8.494101633022802522e-01,-8.494101633022802522e-01,-8.494101633022802522e-01
1.498995816259605318e+00,-8.502656250225895107e-01,-8.502656250225895107e-01,-8.502656250225895107e-01
1.497890314367847031e+00,-8.510896034273957023e-01,-8.510896034273957023e-01,-8.510896034273957023e-01
1.496835521453972584e+00,-8.518795313174749584e-01,-8.518795313174749584e-01,-8.518795313174749584e-01
1.495838582175571307e+00,-8.526292058970479371e-01,-8.526292058970479371e-01,-8.526292058970479371e-01
1.494905691637975931e+00,-8.533332635469865757e-01,-8.533332635469865757e-01,-8.533332635469865757e-01
1.494044600885004570e+00,-8.539848269688248283e-01,-8.539848269688248283e-01,-8.539848269688248283e-01
1.493260584108867306e+00,-8.545795206659148047e-01,-8.545795206659148047e-01,-8.545795206659148047e-01
1.492555040720336956e+00,-8.551165147184837112e-01,-8.551165147184837112e-01,-8.551165147184837112e-01
1.491937695248485074e+00,-8.555868751284082530e-01,-8.555868751284082530e-01,-8.555868751284082530e-01
1.491407131746509407e+00,-8.559924996914612949e-01,-8.559924996914612949e-01,-8.559924996914612949e-01
1.490968576162946757e+00,-8.563285889124235828e-01,-8.563285889124235828e-01,-8.563285889124235828e-01
1.490627617573699659e+00,-8.565899845967822612e-01,-8.565899845967822612e-01,-8.565899845967822612e-01
1.490384394086565090e+00,-8.567768300278949534e-01,-8.567768300278949534e-01,-8.567768300278949534e-01
1.490242089734481912e+00,-8.568861645084547840e-01,-8.568861645084547840e-01,-8.568861645084547840e-01
1.490201360072451742e+00,-8.569174630170841578e-01,-8.569174630170841578e-01,-8.569174630170841578e-01
1.490262473388950681e+00,-8.568704927104664471e-01,-8.568704927104664471e-01,-8.568704927104664471e-01
1.490425920770662271e+00,-8.567447035116567688e-01,-8.567447035116567688e-01,-8.567447035116567688e-01
1.490690064019843719e+00,-8.565415803473652723e-01,-8.565415803473652723e-01,-8.565415803473652723e-01
1.491053020056762435e+00,-8.562627661841986093e-01,-8.562627661841986093e-01,-8.562627661841986093e-01
1.491513288364020751e+00,-8.559093652454762280e-01,-8.559093652454762280e-01,-8.559093652454762280e-01
1.492064143059065096e+00,-8.554877158131048986e-01,-8.554877158131048986e-01,-8.554877158131048986e-01
1.492705214685425608e+00,-8.549976851046567905e-01,-8.549976851046567905e-01,-8.549976851046567905e-01
1.493435236482141493e+00,-8.544399420530670586e-01,-8.544399420530670586e-01,-8.544399420530670586e-01
1.494251335312225759e+00,-8.538166572746408445e-01,-8.538166572746408445e-01,-8.538166572746408445e-01
1.495146837415952001e+00,-8.531337188887948564e-01,-8.531337188887948564e-01,-8.531337188887948564e-01
1.496115435317822095e+00,-8.523964878624924468e-01,-8.523964878624924468e-01,-8.523964878624924468e-01
1.497145352466594748e+00,-8.516154422424275783e-01,-8.516154422424275783e-01,-8.516154422424275783e-01
1.498220795361256741e+00,-8.508056144200349946e-01,-8.508056144200349946e-01,-8.508056144200349946e-01
1.499342444557617560e+00,-8.499652574717541098e-01,-8.499652574717541098e-01,-8.499652574717541098e-01
1.500504167917602105e+00,-8.490993490478038197e-01,-8.490993490478038197e-01,-8.490993490478038197e-01
1.501699069048457069e+00,-8.482136482520906684e-01,-8.482136482520906684e-01,-8.482136482520906684e-01
1.502922220955565047e+00,-8.473116992704644579e-01,-8.473116992704644579e-01,-8.473116992704644579e-01
1.504161889844100930e+00,-8.464038753620891642e-01,-8.464038753620891642e-01,-8.464038753620891642e-01
1.505409118361276111e+00,-8.454977293167976748e-01,-8.454977293167976748e-01,-8.454977293167976748e-01
1.506655396930468571e+00,-8.446004257636463564e-01,-8.446004257636463564e-01,-8.446004257636463564e-01
1.507895447783648146e+00,-8.437159594763156134e-01,-8.437159594763156134e-01,-8.437159594763156134e-01
1.509127008177647999e+00,-8.428452372625705458e-01,-8.428452372625705458e-01,-8.428452372625705458e-01
1.510346262122235661e+00,-8.419905592323971844e-01,-8.419905592323971844e-01,-8.419905592323971844e-01
1.511545182908270668e+00,-8.411586410012075188e-01,-8.411586410012075188e-01,-8.411586410012075188e-01
1.512723979880826297e+00,-8.403478707707137119e-01,-8.403478707707137119e-01,-8.403478707707137119e-01
1.513879937213201021e+00,-8.395594464859579276e-01,-8.395594464859579276e-01,-8.395594464859579276e-01
1.515005677953625396e+00,-8.387993340102590789e-01,-8.387993340102590789e-01,-8.387993340102590789e-01
1.516097641241368921e+00,-8.380692749083414883e-01,-8.380692749083414883e-01,-8.380692749083414883e-01
1.517138300633483539e+00,-8.373855381009218668e-01,-8.373855381009218668e-01,-8.373855381009218668e-01
1.518129168343918423e+00,-8.367450701272243219e-01,-8.367450701272243219e-01,-8.367450701272243219e-01
1.519062520214541578e+00,-8.361542311194837263e-01,-8.361542311194837263e-01,-8.361542311194837263e-01
1.519936989500426439e+00,-8.356134100795189479e-01,-8.356134100795189479e-01,-8.356134100795189479e-01
1.520764653334657934e+00,-8.351091108101397209e-01,-8.351091108101397209e-01,-8.351091108101397209e-01
1.521538503892001515e+00,-8.346472480660698245e-01,-8.346472480660698245e-01,-8.346472480660698245e-01
1.522266553181661486e+00,-8.342186715834665200e-01,-8.342186715834665200e-01,-8.342186715834665200e-01
1.522957084393167237e+00,-8.338138574872792086e-01,-8.338138574872792086e-01,-8.338138574872792086e-01
1.523600556814266982e+00,-8.334412772782729961e-01,-8.334412772782729961e-01,-8.334412772782729961e-01
1.524204022478079068e+00,-8.330927825880269921e-01,-8.330927825880269921e-01,-8.330927825880269921e-01
1.524760513651048699e+00,-8.327743263129661067e-01,-8.327743263129661067e-01,-8.327743263129661067e-01
1.525267684469816754e+00,-8.324872829150506970e-01,-8.324872829150506970e-01,-8.324872829150506970e-01
1.525721468852360818e+00,-8.322348292323766827e-01,-8.322348292323766827e-01,-8.322348292323766827e-01
1.526119974842880866e+00,-8.320181161753402721e-01,-8.320181161753402721e-01,-8.320181161753402721e-01
1.526467194698888807e+00,-8.318324471898097539e-01,-8.318324471898097539e-01,-8.318324471898097539e-01
1.526764341973094741e+00,-8.316759923136443078e-01,-8.316759923136443078e-01,-8.316759923136443078e-01
1.527014747406746586e+00,-8.315448657184602022e-01,-8.315448657184602022e-01,-8.315448657184602022e-01
1.527218784077106539e+00,-8.314382218843441308e-01,-8.314382218843441308e-01,-8.314382218843441308e-01
1.527375949944710820e+00,-8.313561770295131437e-01,-8.313561770295131437e-01,-8.313561770295131437e-01
1.527485857319371254e+00,-8.312988208511863375e-01,-8.312988208511863375e-01,-8.312988208511863375e-01
1.527547871323237105e+00,-8.312665800126014526e-01,-8.312665800126014526e-01,-8.312665800126014526e-01
1.527562103605817345e+00,-8.312592256402474566e-01,-8.312592256402474566e-01,-8.312592256402474566e-01
1.527529102464841415e+00,-8.312761825648790071e-01,-8.312761825648790071e-01,-8.312761825648790071e-01
1.527449065676167228e+00,-8.313173176277848242e-01,-8.313173176277848242e-01,-8.313173176277848242e-01
1.527321178999514695e+00,-8.313835987854850673e-01,-8.313835987854850673e-01,-8.313835987854850673e-01
1.527146601748402555e+00,-8.314741144621985436e-01,-8.314741144621985436e-01,-8.314741144621985436e-01
1.526923518332863550e+00,-8.315910166078989141e-01,-8.315910166078989141e-01,-8.315910166078989141e-01
1.526651276943769897e+00,-8.317353789206430870e-01,-8.317353789206430870e-01,-8.317353789206430870e-01
1.526330168977314550e+00,-8.319074505339876247e-01,-8.319074505339876247e-01,-8.319074505339876247e-01
1.525954248317256567e+00,-8.321137737983166360e-01,-8.321137737983166360e-01,-8.321137737983166360e-01
1.525523076805851419e+00,-8.323554760010519749e-01,-8.323554760010519749e-01,-8.323554760010519749e-01
1.525034776660847413e+00,-8.326351805981401233e-01,-8.326351805981401233e-01,-8.326351805981401233e-01
1.524490830528730800e+00,-8.329522161892847221e-01,-8.329522161892847221e-01,-8.329522161892847221e-01
1.523895380802720245e+00,-8.333033495446661165e-01,-8.333033495446661165e-01,-8.333033495446661165e-01
1.523247838948242450e+00,-8.336901244765114738e-01,-8.336901244765114738e-01,-8.336901244765114738e-01
1.522553191568589703e+00,-8.341086029960398385e-01,-8.341086029960398385e-01,-8.341086029960398385e-01
1.521809787732033792e+00,-8.345615578025705750e-01,-8.345615578025705750e-01,-8.345615578025705750e-01
1.521014624965622897e+00,-8.350531528359224076e-01,-8.350531528359224076e-01,-8.350531528359224076e-01
1.520168349538604025e+00,-8.355840002603562855e-01,-8.355840002603562855e-01,-8.355840002603562855e-01
1.519265827897957832e+00,-8.361605451413971490e-01,-8.361605451413971490e-01,-8.361605451413971490e-01
1.518302759309388517e+00,-8.367884287702751500e-01,-8.367884287702751500e-01,-8.367884287702751500e-01
1.517277379598434450e+00,-8.374708976599409826e-01,-8.374708976599409826e-01,-8.374708976599409826e-01
1.516179760369440244e+00,-8.382192312856687755e-01,-8.382192312856687755e-01,-8.382192312856687755e-01
1.515014010613848106e+00,-8.390308747155308389e-01,-8.390308747155308389e-01,-8.390308747155308389e-01
1.513771401195334931e+00,-8.399158726819118126e-01,-8.399158726819118126e-01,-8.399158726819118126e-01
1.512461757473541279e+00,-8.408658379007513117e-01,-8.408658379007513117e-01,-8.408658379007513117e-01
1.511088205740915624e+00,-8.418791418684886674e-01,-8.418791418684886674e-01,-8.418791418684886674e-01
1.509650066318224626e+00,-8.429577674578754287e-01,-8.429577674578754287e-01,-8.429577674578754287e-01
1.508161844600288459e+00,-8.440886835388099474e-01,-8.440886835388099474e-01,-8.440886835388099474e-01
1.506626892504020043e+00,-8.452702632475822542e-01,-8.452702632475822542e-01,-8.452702632475822542e-01
1.505031953370757458e+00,-8.465171987807711407e-01,-8.465171987807711407e-01,-8.465171987807711407e-01
1.503381787447765516e+00,-8.478260383569932168e-01,-8.478260383569932168e-01,-8.478260383569932168e-01
1.501691430272371619e+00,-8.491837757457294522e-01,-8.491837757457294522e-01,-8.491837757457294522e-01
1.499934773926736353e+00,-8.506173225293165441e-01,-8.506173225293165441e-01,-8.506173225293165441e-01
1.498148342720746706e+00,-8.520921323206306353e-01,-8.520921323206306353e-01,-8.520921323206306353e-01
1.496317143544434236e+00,-8.536250566577923138e-01,-8.536250566577923138e-01,-8.536250566577923138e-01
1.494429400800938668e+00,-8.552284020791947050e-01,-8.552284020791947050e-01,-8.552284020791947050e-01
1.492526601060227165e+00,-8.568627241174940901e-01,-8.568627241174940901e-01,-8.568627241174940901e-01
1.490592532604033682e+00,-8.585446517882061590e-01,-8.585446517882061590e-01,-8.585446517882061590e-01
1.488663435438118743e+00,-8.602390517596714137e-01,-8.602390517596714137e-01,-8.602390517596714137e-01
1.486745612736056543e+00,-8.619394993422615503e-01,-8.619394993422615503e-01,-8.619394993422615503e-01
1.484880091021011594e+00,-8.636050581541712123e-01,-8.636050581541712123e-01,-8.636050581541712123e-01
1.483104555979209316e+00,-8.651982573136083321e-01,-8.651982573136083321e-01,-8.651982573136083321e-01
1.481456986220748284e+00,-8.666815411166268746e-01,-8.666815411166268746e-01,-8.666815411166268746e-01
1.479971609058780002e+00,-8.680215238761805896e-01,-8.680215238761805896e-01,-8.680215238761805896e-01
1.478647830912247496e+00,-8.692195688648587382e-01,-8.692195688648587382e-01,-8.692195688648587382e-01
1.477488878418539597e+00,-8.702728517800725205e-01,-8.702728517800725205e-01,-8.702728517800725205e-01
1.476511608595120650e+00,-8.711647707412032426e-01,-8.711647707412032426e-01,-8.711647707412032426e-01
1.475732101007069419e+00,-8.718791381151747011e-01,-8.718791381151747011e-01,-8.718791381151747011e-01
1.475177449229913007e+00,-8.723888517274563936e-01,-8.723888517274563936e-01,-8.723888517274563936e-01
1.474872432959222213e+00,-8.726693118373627378e-01,-8.726693118373627378e-01,-8.726693118373627378e-01
1.474822259098610422e+00,-8.727153992115646020e-01,-8.727153992115646020e-01,-8.727153992115646020e-01
1.475017053829707603e+00,-8.725369259760643592e-01,-8.725369259760643592e-01,-8.725369259760643592e-01
1.475445986398978615e+00,-8.721446508742453085e-01,-8.721446508742453085e-01,-8.721446508742453085e-01
1.476107556115700659e+00,-8.715399264262835288e-01,-8.715399264262835288e-01,-8.715399264262835288e-01
1.476996635935329705e+00,-8.707276519891777866e-01,-8.707276519891777866e-01,-8.707276519891777866e-01
1.478107459590428441e+00,-8.697132925069517295e-01,-8.697132925069517295e-01,-8.697132925069517295e-01
1.479441954515378521e+00,-8.684944689575080368e-01,-8.684944689575080368e-01,-8.684944689575080368e-01
1.480966812463196280e+00,-8.671039583109617643e-01,-8.671039583109617643e-01,-8.671039583109617643e-01
1.482660424989368009e+00,-8.655627963142389358e-01,-8.655627963142389358e-01,-8.655627963142389358e-01
1.484502326741427236e+00,-8.638904776183070622e-01,-8.638904776183070622e-01,-8.638904776183070622e-01
1.486443979705053930e+00,-8.621349713562722616e-01,-8.621349713562722616e-01,-8.621349713562722616e-01
1.488482951015719147e+00,-8.602981963673888011e-01,-8.602981963673888011e-01,-8.602981963673888011e-01
1.490636076182536129e+00,-8.583623284192363201e-01,-8.583623284192363201e-01,-8.583623284192363201e-01
1.492861794621213711e+00,-8.563680270811618866e-01,-8.563680270811618866e-01,-8.563680270811618866e-01
1.495140084148788739e+00,-8.543342120690722297e-01,-8.543342120690722297e-01,-8.543342120690722297e-01
1.497427114192393161e+00,-8.523027207136427696e-01,-8.523027207136427696e-01,-8.523027207136427696e-01
1.499632261899989327e+00,-8.503632580878965896e-01,-8.503632580878965896e-01,-8.503632580878965896e-01
1.501744751305488457e+00,-8.485254092552683147e-01,-8.485254092552683147e-01,-8.485254092552683147e-01
1.503741390871847550e+00,-8.468112913042684653e-01,-8.468112913042684653e-01,-8.468112913042684653e-01
1.505610485674987453e+00,-8.452316055163273667e-01,-8.452316055163273667e-01,-8.452316055163273667e-01
1.507348220947863915e+00,-8.437889495722966648e-01,-8.437889495722966648e-01,-8.437889495722966648e-01
1.508939145942976623e+00,-8.424977323243169058e-01,-8.424977323243169058e-01,-8.424977323243169058e-01
1.510383929148730431e+00,-8.413562441033979322e-01,-8.413562441033979322e-01,-8.413562441033979322e-01
1.511688741594504837e+00,-8.403576635037910414e-01,-8.403576635037910414e-01,-8.403576635037910414e-01
1.512909340550506299e+00,-8.394451091838228685e-01,-8.394451091838228685e-01,-8.394451091838228685e-01
1.514055198415885206e+00,-8.386079613082729756e-01,-8.386079613082729756e-01,-8.386079613082729756e-01
1.515136639594382828e+00,-8.378347012953012429e-01,-8.378347012953012429e-01,-8.378347012953012429e-01
1.516156123386242616e+00,-8.371215551910441421e-01,-8.371215551910441421e-01,-8.371215551910441421e-01
1.517088200646295348e+00,-8.364929064310494544e-01,-8.364929064310494544e-01,-8.364929064310494544e-01
1.517969076089021874e+00,-8.359113465011436261e-01,-8.359113465011436261e-01,-8.359113465011436261e-01
1.518794847221547117e+00,-8.353795923090966413e-01,-8.353795923090966413e-01,-8.353795923090966413e-01
1.519562862310939400e+00,-8.348991594073529310e-01,-8.348991594073529310e-01,-8.348991594073529310e-01
1.520284492881335270e+00,-8.344575356884609274e-01,-8.344575356884609274e-01,-8.344575356884609274e-01
1.520956693184288833e+00,-8.340566375976081748e-01,-8.340566375976081748e-01,-8.340566375976081748e-01
1.521567839219728713e+00,-8.337070290232565517e-01,-8.337070290232565517e-01,-8.337070290232565517e-01
1.522123442389730519e+00,-8.334021787824572591e-01,-8.334021787824572591e-01,-8.334021787824572591e-01
1.522632028395429105e+00,-8.331325590498660505e-01,-8.331325590498660505e-01,-8.331325590498660505e-01
1.523087260915638730e+00,-8.329035651623356573e-01,-8.329035651623356573e-01,-8.329035651623356573e-01
1.523492045624314395e+00,-8.327114048001528213e-01,-8.327114048001528213e-01,-8.327114048001528213e-01
1.523852748435975180e+00,-8.325488669577464362e-01,-8.325488669577464362e-01,-8.325488669577464362e-01
1.524167283422244612e+00,-8.324172597915012739e-01,-8.324172597915012739e-01,-8.324172597915012739e-01
1.524441503849598423e+00,-8.323100101090571412e-01,-8.323100101090571412e-01,-8.323100101090571412e-01
1.524680700798413335e+00,-8.322211676697445215e-01,-8.322211676697445215e-01,-8.322211676697445215e-01
1.524889040984728439e+00,-8.321459700783410129e-01,-8.321459700783410129e-01,-8.321459700783410129e-01
1.525066404033947887e+00,-8.320840103539497434e-01,-8.320840103539497434e-01,-8.320840103539497434e-01
1.525213159455260703e+00,-8.320344614444713516e-01,-8.320344614444713516e-01,-8.320344614444713516e-01
1.525328776906072159e+00,-8.319974692055353005e-01,-8.319974692055353005e-01,-8.319974692055353005e-01
1.525414987165409242e+00,-8.319709913751703878e-01,-8.319709913751703878e-01,-8.319709913751703878e-01
1.525472270551156750e+00,-8.319543113915048860e-01,-8.319543113915048860e-01,-8.319543113915048860e-01
1.525502300266685429e+00,-8.319455951575164265e-01,-8.319455951575164265e-01,-8.319455951575164265e-01
1.525505050190345546e+00,-8.319447843597349568e-01,-8.319447843597349568e-01,-8.319447843597349568e-01
1.525480232274693648e+00,-8.319521594427038425e-01,-8.319521594427038425e-01,-8.319521594427038425e-01
1.525426798340526968e+00,-8.319688377093371612e-01,-8.319688377093371612e-01,-8.319688377093371612e-01
1.525345483608170349e+00,-8.319942295802177368e-01,-8.319942295802177368e-01,-8.319942295802177368e-01
1.525236449093978486e+00,-8.320283956426210992e-01,-8.320283956426210992e-01,-8.320283956426210992e-01
1.525099567983721816e+00,-8.320717593567905634e-01,-8.320717593567905634e-01,-8.320717593567905634e-01
1.524935659406503774e+00,-8.321238724174579993e-01,-8.321238724174579993e-01,-8.321238724174579993e-01
1.524748802700103267e+00,-8.321810984799978828e-01,-8.321810984799978828e-01,-8.321810984799978828e-01
1.524533734170200994e+00,-8.322492173600968268e-01,-8.322492173600968268e-01,-8.322492173600968268e-01
1.524282805916471917e+00,-8.323364580484685638e-01,-8.323364580484685638e-01,-8.323364580484685638e-01
1.523999218430493796e+00,-8.324402711450837877e-01,-8.324402711450837877e-01,-8.324402711450837877e-01
1.523676836679317859e+00,-8.325675069833275987e-01,-8.325675069833275987e-01,-8.325675069833275987e-01
1.523310241818337074e+00,-8.327243598890418097e-01,-8.327243598890418097e-01,-8.327243598890418097e-01
1.522895852635165692e+00,-8.329152459628810234e-01,-8.329152459628810234e-01,-8.329152459628810234e-01
1.522428288734388735e+00,-8.331464339024027277e-01,-8.331464339024027277e-01,-8.331464339024027277e-01
1.521904136213497738e+00,-8.334222830839346230e-01,-8.334222830839346230e-01,-8.334222830839346230e-01
1.521313484172618358e+00,-8.337536731579203719e-01,-8.337536731579203719e-01,-8.337536731579203719e-01
1.520678113766142925e+00,-8.341198656943762391e-01,-8.341198656943762391e-01,-8.341198656943762391e-01
1.519976879149345761e+00,-8.345430868041633365e-01,-8.345430868041633365e-01,-8.345430868041633365e-01
1.519197220315224417e+00,-8.350370424985994466e-01,-8.350370424985994466e-01,-8.350370424985994466e-01
1.518308150219033648e+00,-8.356339015054303765e-01,-8.356339015054303765e-01,-8.356339015054303765e-01
1.517284036880010012e+00,-8.363605783458665233e-01,-8.363605783458665233e-01,-8.363605783458665233e-01
1.516075416332565595e+00,-8.372678025712704253e-01,-8.372678025712704253e-01,-8.372678025712704253e-01
1.514654980199902745e+00,-8.383840962957482823e-01,-8.383840962957482823e-01,-8.383840962957482823e-01
1.513020229086927460e+00,-8.397134010353418665e-01,-8.397134010353418665e-01,-8.397134010353418665e-01
1.511110438971930092e+00,-8.413174237253270293e-01,-8.413174237253270293e-01,-8.413174237253270293e-01
1.508991765194442669e+00,-8.431311719810086203e-01,-8.431311719810086203e-01,-8.431311719810086203e-01
1.506686441878416716e+00,-8.451335199602172388e-01,-8.451335199602172388e-01,-8.451335199602172388e-01
1.504241177965117249e+00,-8.472790313238447446e-01,-8.472790313238447446e-01,-8.472790313238447446e-01
1.501638973444793468e+00,-8.495859663265241668e-01,-8.495859663265241668e-01,-8.495859663265241668e-01
1.498868469559401673e+00,-8.520669786503661802e-01,-8.520669786503661802e-01,-8.520669786503661802e-01
1.495908792636076790e+00,-8.547442394074468153e-01,-8.547442394074468153e-01,-8.547442394074468153e-01
1.492735596430833533e+00,-8.576428981567073562e-01,-8.576428981567073562e-01,-8.576428981567073562e-01
1.489458133320682443e+00,-8.606552592165721549e-01,-8.606552592165721549e-01,-8.606552592165721549e-01
1.485985269476711057e+00,-8.638738299484812755e-01,-8.638738299484812755e-01,-8.638738299484812755e-01
1.482286035033142380e+00,-8.673305918428821926e-01,-8.673305918428821926e-01,-8.673305918428821926e-01
1.478430097463558024e+00,-8.709590195278247293e-01,-8.709590195278247293e-01,-8.709590195278247293e-01
1.474188804179010548e+00,-8.749872280803975277e-01,-8.749872280803975277e-01,-8.749872280803975277e-01
1.469751964631112573e+00,-8.792256617685251241e-01,-8.792256617685251241e-01,-8.792256617685251241e-01
1.465254767908113820e+00,-8.835403897433328213e-01,-8.835403897433328213e-01,-8.835403897433328213e-01
1.460656868856221147e+00,-8.879706262314619458e-01,-8.879706262314619458e-01,-8.879706262314619458e-01
1.456284454034024067e+00,-8.921919594955005639e-01,-8.921919594955005639e-01,-8.921919594955005639e-01
1.452049682163448319e+00,-8.962930753455135013e-01,-8.962930753455135013e-01,-8.962930753455135013e-01
1.447962980187716298e+00,-9.002628203670804963e-01,-9.002628203670804963e-01,-9.002628203670804963e-01
1.444185009929066288e+00,-9.039401225709569054e-01,-9.039401225709569054e-01,-9.039401225709569054e-01
1.440870882554430965e+00,-9.071699046689655210e-01,-9.071699046689655210e-01,-9.071699046689655210e-01
1.438291988068769456e+00,-9.096811592788747181e-01,-9.096811592788747181e-01,-9.096811592788747181e-01
1.436431971809891461e+00,-9.114902408834473224e-01,-9.114902408834473224e-01,-9.114902408834473224e-01
1.435211017171177161e+00,-9.126771285294215108e-01,-9.126771285294215108e-01,-9.126771285294215108e-01
1.434600176576447339e+00,-9.132710258600059694e-01,-9.132710258600059694e-01,-9.132710258600059694e-01
1.434600176576447339e+00,-9.132710258600059694e-01,-9.132710258600059694e-01,-9.132710258600059694e-01
